digraph Tree {
node [shape=box] ;
0 [label="X[3] <= 0.5\ngini = 0.4384\nsamples = 8000\nvalue = [5404, 2596]"] ;
1 [label="X[0] <= 44950.0\ngini = 0.4903\nsamples = 4135\nvalue = [1780, 2355]"] ;
0 -> 1 [labeldistance=2.5, labelangle=45, headlabel="True"] ;
3 [label="X[1] <= 109.5\ngini = 0.4332\nsamples = 1942\nvalue = [1326, 616]"] ;
1 -> 3 ;
9 [label="X[0] <= 32970.0\ngini = 0.3867\nsamples = 1439\nvalue = [1062, 377]"] ;
3 -> 9 ;
11 [label="X[0] <= 28510.0\ngini = 0.2725\nsamples = 590\nvalue = [494, 96]"] ;
9 -> 11 ;
19 [label="X[1] <= 95.5\ngini = 0.3476\nsamples = 384\nvalue = [298, 86]"] ;
11 -> 19 ;
35 [label="gini = 0.2688\nsamples = 200\nvalue = [168, 32]"] ;
19 -> 35 ;
36 [label="X[0] <= 24105.0\ngini = 0.4147\nsamples = 184\nvalue = [130, 54]"] ;
19 -> 36 ;
39 [label="gini = 0.4541\nsamples = 132\nvalue = [86, 46]"] ;
36 -> 39 ;
40 [label="gini = 0.2604\nsamples = 52\nvalue = [44, 8]"] ;
36 -> 40 ;
20 [label="gini = 0.0924\nsamples = 206\nvalue = [196, 10]"] ;
11 -> 20 ;
12 [label="X[1] <= 88.5\ngini = 0.4429\nsamples = 849\nvalue = [568, 281]"] ;
9 -> 12 ;
27 [label="X[0] <= 33115.0\ngini = 0.355\nsamples = 208\nvalue = [160, 48]"] ;
12 -> 27 ;
37 [label="gini = 0.32\nsamples = 5\nvalue = [1, 4]"] ;
27 -> 37 ;
38 [label="X[0] <= 42425.0\ngini = 0.3395\nsamples = 203\nvalue = [159, 44]"] ;
27 -> 38 ;
41 [label="gini = 0.2821\nsamples = 153\nvalue = [127, 26]"] ;
38 -> 41 ;
42 [label="X[0] <= 42470.0\ngini = 0.4608\nsamples = 50\nvalue = [32, 18]"] ;
38 -> 42 ;
47 [label="gini = 0.0\nsamples = 3\nvalue = [0, 3]"] ;
42 -> 47 ;
48 [label="gini = 0.4346\nsamples = 47\nvalue = [32, 15]"] ;
42 -> 48 ;
28 [label="gini = 0.4627\nsamples = 641\nvalue = [408, 233]"] ;
12 -> 28 ;
10 [label="X[0] <= 32480.0\ngini = 0.4988\nsamples = 503\nvalue = [264, 239]"] ;
3 -> 10 ;
13 [label="X[0] <= 26620.0\ngini = 0.4418\nsamples = 167\nvalue = [112, 55]"] ;
10 -> 13 ;
15 [label="gini = 0.4995\nsamples = 93\nvalue = [48, 45]"] ;
13 -> 15 ;
16 [label="gini = 0.2337\nsamples = 74\nvalue = [64, 10]"] ;
13 -> 16 ;
14 [label="X[0] <= 35095.0\ngini = 0.4955\nsamples = 336\nvalue = [152, 184]"] ;
10 -> 14 ;
33 [label="gini = 0.4137\nsamples = 65\nvalue = [19, 46]"] ;
14 -> 33 ;
34 [label="X[0] <= 40245.0\ngini = 0.4998\nsamples = 271\nvalue = [133, 138]"] ;
14 -> 34 ;
57 [label="gini = 0.4945\nsamples = 143\nvalue = [79, 64]"] ;
34 -> 57 ;
58 [label="gini = 0.4878\nsamples = 128\nvalue = [54, 74]"] ;
34 -> 58 ;
4 [label="X[0] <= 67420.0\ngini = 0.3283\nsamples = 2193\nvalue = [454, 1739]"] ;
1 -> 4 ;
5 [label="X[1] <= 100.5\ngini = 0.4125\nsamples = 1561\nvalue = [454, 1107]"] ;
4 -> 5 ;
7 [label="X[0] <= 55240.0\ngini = 0.4942\nsamples = 518\nvalue = [231, 287]"] ;
5 -> 7 ;
21 [label="X[0] <= 45195.0\ngini = 0.463\nsamples = 272\nvalue = [99, 173]"] ;
7 -> 21 ;
43 [label="gini = 0.2778\nsamples = 6\nvalue = [5, 1]"] ;
21 -> 43 ;
44 [label="gini = 0.457\nsamples = 266\nvalue = [94, 172]"] ;
21 -> 44 ;
22 [label="X[1] <= 88.5\ngini = 0.4973\nsamples = 246\nvalue = [132, 114]"] ;
7 -> 22 ;
25 [label="gini = 0.4221\nsamples = 76\nvalue = [53, 23]"] ;
22 -> 25 ;
26 [label="X[0] <= 59055.0\ngini = 0.4975\nsamples = 170\nvalue = [79, 91]"] ;
22 -> 26 ;
29 [label="gini = 0.4444\nsamples = 42\nvalue = [28, 14]"] ;
26 -> 29 ;
30 [label="gini = 0.4794\nsamples = 128\nvalue = [51, 77]"] ;
26 -> 30 ;
8 [label="X[2] <= 0.5\ngini = 0.3362\nsamples = 1043\nvalue = [223, 820]"] ;
5 -> 8 ;
23 [label="gini = 0.4003\nsamples = 495\nvalue = [137, 358]"] ;
8 -> 23 ;
24 [label="X[1] <= 110.5\ngini = 0.2646\nsamples = 548\nvalue = [86, 462]"] ;
8 -> 24 ;
49 [label="X[0] <= 54595.0\ngini = 0.3356\nsamples = 225\nvalue = [48, 177]"] ;
24 -> 49 ;
51 [label="gini = 0.2155\nsamples = 114\nvalue = [14, 100]"] ;
49 -> 51 ;
52 [label="X[0] <= 60935.0\ngini = 0.425\nsamples = 111\nvalue = [34, 77]"] ;
49 -> 52 ;
53 [label="X[1] <= 103.5\ngini = 0.4787\nsamples = 63\nvalue = [25, 38]"] ;
52 -> 53 ;
55 [label="gini = 0.2449\nsamples = 14\nvalue = [2, 12]"] ;
53 -> 55 ;
56 [label="gini = 0.4981\nsamples = 49\nvalue = [23, 26]"] ;
53 -> 56 ;
54 [label="gini = 0.3047\nsamples = 48\nvalue = [9, 39]"] ;
52 -> 54 ;
50 [label="gini = 0.2076\nsamples = 323\nvalue = [38, 285]"] ;
24 -> 50 ;
6 [label="gini = 0.0\nsamples = 632\nvalue = [0, 632]"] ;
4 -> 6 ;
2 [label="X[1] <= 119.5\ngini = 0.1169\nsamples = 3865\nvalue = [3624, 241]"] ;
0 -> 2 [labeldistance=2.5, labelangle=-45, headlabel="False"] ;
17 [label="X[0] <= 51650.0\ngini = 0.0974\nsamples = 3525\nvalue = [3344, 181]"] ;
2 -> 17 ;
31 [label="gini = 0.0845\nsamples = 3259\nvalue = [3115, 144]"] ;
17 -> 31 ;
32 [label="gini = 0.2395\nsamples = 266\nvalue = [229, 37]"] ;
17 -> 32 ;
18 [label="X[0] <= 31950.0\ngini = 0.2907\nsamples = 340\nvalue = [280, 60]"] ;
2 -> 18 ;
45 [label="gini = 0.1723\nsamples = 126\nvalue = [114, 12]"] ;
18 -> 45 ;
46 [label="gini = 0.348\nsamples = 214\nvalue = [166, 48]"] ;
18 -> 46 ;
}